genomestart 5
trait 1node 1 1 SENSOR INPUT
node 2 1 SENSOR INPUT
node 3 1 SENSOR INPUT
node 4 1 SENSOR INPUT
node 5 1 SENSOR INPUT
node 6 1 SENSOR INPUT
node 7 1 SENSOR INPUT
node 8 1 SENSOR INPUT
node 9 1 SENSOR INPUT
node 10 1 SENSOR INPUT
node 11 1 SENSOR INPUT
node 12 1 SENSOR INPUT
node 13 1 SENSOR BIAS
node 114 1 NEURON OUTPUT
node 115 1 NEURON OUTPUT
gene 1 1 114 -0.07208096981048584 false 12995.0 -0.07208096981048584 true
gene 1 3 114 0.5305315852165222 false 12997.0 0.5305315852165222 true
gene 1 5 114 0.4252244830131531 false 12999.0 0.4252244830131531 true
gene 1 8 114 -0.25616759061813354 false 13002.0 -0.25616759061813354 true
gene 1 9 114 -0.5733917951583862 false 13003.0 -0.5733917951583862 true
gene 1 10 114 -0.4085310697555542 false 13004.0 -0.4085310697555542 true
gene 1 11 114 -0.30703508853912354 false 13005.0 -0.30703508853912354 true
gene 1 12 114 -0.47631245851516724 false 13006.0 -0.47631245851516724 true
gene 1 1 115 -0.9116878509521484 false 13110.0 -0.9116878509521484 true
gene 1 3 115 -0.3489261865615845 false 13112.0 -0.3489261865615845 true
gene 1 5 115 -0.0015428662300109863 false 13114.0 -0.0015428662300109863 true
gene 1 8 115 0.6046919226646423 false 13117.0 0.6046919226646423 true
gene 1 9 115 0.8086694478988647 false 13118.0 0.8086694478988647 true
gene 1 10 115 0.42138779163360596 false 13119.0 0.42138779163360596 true
gene 1 11 115 -0.18907219171524048 false 13120.0 -0.18907219171524048 true
gene 1 12 115 -0.712765097618103 false 13121.0 -0.712765097618103 true
genomeend5
