genomestart 1
node 1 1 SENSOR INPUT
node 2 1 SENSOR INPUT
node 3 1 SENSOR INPUT
node 4 1 SENSOR INPUT
node 5 1 SENSOR INPUT
node 6 1 SENSOR INPUT
node 7 1 SENSOR INPUT
node 8 1 SENSOR INPUT
node 9 1 SENSOR INPUT
node 10 1 SENSOR INPUT
node 11 1 SENSOR INPUT
node 12 1 SENSOR INPUT
node 13 1 SENSOR BIAS
node 114 1 NEURON OUTPUT
node 115 1 NEURON OUTPUT
gene 1 1 114 -0.5072702765464783 false 12995.0 -0.5072702765464783 true
gene 1 2 114 -0.3087847828865051 false 12996.0 -0.3087847828865051 true
gene 1 7 114 -0.6202071905136108 false 13001.0 -0.6202071905136108 true
gene 1 9 114 0.26404279470443726 false 13003.0 0.26404279470443726 true
gene 1 11 114 -0.8873438835144043 false 13005.0 -0.8873438835144043 true
gene 1 13 114 -0.8806688785552979 false 13007.0 -0.8806688785552979 true
gene 1 1 115 -0.33043259382247925 false 13110.0 -0.33043259382247925 true
gene 1 2 115 -0.7269419431686401 false 13111.0 -0.7269419431686401 true
gene 1 7 115 -0.07429265975952148 false 13116.0 -0.07429265975952148 true
gene 1 9 115 -0.15835332870483398 false 13118.0 -0.15835332870483398 true
gene 1 11 115 -0.7340220808982849 false 13120.0 -0.7340220808982849 true
gene 1 13 115 0.07790899276733398 false 13122.0 0.07790899276733398 true
gene 1 114 115 -0.009027302265167236 false 13223.0 -0.009027302265167236 true
genomeend1
