genomestart 1
trait 1node 1 1 SENSOR INPUT
node 2 1 SENSOR INPUT
node 3 1 SENSOR INPUT
node 4 1 SENSOR INPUT
node 5 1 SENSOR INPUT
node 6 1 SENSOR INPUT
node 7 1 SENSOR INPUT
node 8 1 SENSOR INPUT
node 9 1 SENSOR INPUT
node 10 1 SENSOR INPUT
node 11 1 SENSOR INPUT
node 12 1 SENSOR INPUT
node 13 1 SENSOR BIAS
node 114 1 NEURON OUTPUT
node 115 1 NEURON OUTPUT
gene 1 1 114 -0.6897813081741333 false 12995.0 -0.6897813081741333 true
gene 1 6 114 -0.4314548373222351 false 13000.0 -0.4314548373222351 true
gene 1 8 114 0.7360676527023315 false 13002.0 0.7360676527023315 true
gene 1 10 114 -0.9330931305885315 false 13004.0 -0.9330931305885315 true
gene 1 11 114 -0.3112664222717285 false 13005.0 -0.3112664222717285 true
gene 1 12 114 -0.6140763759613037 false 13006.0 -0.6140763759613037 true
gene 1 13 114 -0.09786057472229004 false 13007.0 -0.09786057472229004 true
gene 1 1 115 -0.9789101481437683 false 13110.0 -0.9789101481437683 true
gene 1 6 115 -0.8277403712272644 false 13115.0 -0.8277403712272644 true
gene 1 8 115 0.6724393367767334 false 13117.0 0.6724393367767334 true
gene 1 10 115 0.4315556287765503 false 13119.0 0.4315556287765503 true
gene 1 11 115 -0.914640486240387 false 13120.0 -0.914640486240387 true
gene 1 12 115 -0.032244741916656494 false 13121.0 -0.032244741916656494 true
gene 1 13 115 -0.7615649700164795 false 13122.0 -0.7615649700164795 true
gene 1 114 115 -0.4735332727432251 false 13223.0 -0.4735332727432251 true
genomeend1
