genomestart 0
trait 1node 1 1 SENSOR INPUT
node 2 1 SENSOR INPUT
node 3 1 SENSOR INPUT
node 4 1 SENSOR INPUT
node 5 1 SENSOR INPUT
node 6 1 SENSOR INPUT
node 7 1 SENSOR INPUT
node 8 1 SENSOR INPUT
node 9 1 SENSOR INPUT
node 10 1 SENSOR INPUT
node 11 1 SENSOR INPUT
node 12 1 SENSOR INPUT
node 13 1 SENSOR BIAS
node 114 1 NEURON OUTPUT
node 115 1 NEURON OUTPUT
gene 1 1 114 -0.15837502479553223 false 12995.0 -0.15837502479553223 true
gene 1 4 114 -0.1321064829826355 false 12998.0 -0.1321064829826355 true
gene 1 6 114 -0.9141188263893127 false 13000.0 -0.9141188263893127 true
gene 1 8 114 0.3319905400276184 false 13002.0 0.3319905400276184 true
gene 1 9 114 -0.3781058192253113 false 13003.0 -0.3781058192253113 true
gene 1 10 114 -0.10164690017700195 false 13004.0 -0.10164690017700195 true
gene 1 11 114 -0.4563143849372864 false 13005.0 -0.4563143849372864 true
gene 1 12 114 -0.7535988688468933 false 13006.0 -0.7535988688468933 true
gene 1 13 114 0.5414289832115173 false 13007.0 0.5414289832115173 true
gene 1 1 115 -0.2560698390007019 false 13110.0 -0.2560698390007019 true
gene 1 4 115 -0.4598916172981262 false 13113.0 -0.4598916172981262 true
gene 1 6 115 -0.9978408217430115 false 13115.0 -0.9978408217430115 true
gene 1 8 115 -0.48697638511657715 false 13117.0 -0.48697638511657715 true
gene 1 9 115 -0.3038971424102783 false 13118.0 -0.3038971424102783 true
gene 1 10 115 -0.434256374835968 false 13119.0 -0.434256374835968 true
gene 1 11 115 -0.8453041911125183 false 13120.0 -0.8453041911125183 true
gene 1 12 115 -0.5758137702941895 false 13121.0 -0.5758137702941895 true
gene 1 13 115 -0.768686056137085 false 13122.0 -0.768686056137085 true
genomeend0
