genomestart 1
node 1 1 SENSOR INPUT
node 2 1 SENSOR INPUT
node 3 1 SENSOR INPUT
node 4 1 SENSOR INPUT
node 5 1 SENSOR INPUT
node 6 1 SENSOR INPUT
node 7 1 SENSOR INPUT
node 8 1 SENSOR INPUT
node 9 1 SENSOR INPUT
node 10 1 SENSOR INPUT
node 11 1 SENSOR INPUT
node 12 1 SENSOR INPUT
node 13 1 SENSOR BIAS
node 114 1 NEURON OUTPUT
node 115 1 NEURON OUTPUT
gene 1 1 114 -0.09038889408111572 false 12995.0 -0.09038889408111572 true
gene 1 2 114 -0.07345068454742432 false 12996.0 -0.07345068454742432 true
gene 1 3 114 -0.18315988779067993 false 12997.0 -0.18315988779067993 true
gene 1 4 114 0.09030032157897949 false 12998.0 0.09030032157897949 true
gene 1 5 114 -0.7572733759880066 false 12999.0 -0.7572733759880066 true
gene 1 6 114 -0.9773253202438354 false 13000.0 -0.9773253202438354 true
gene 1 7 114 0.9278011322021484 false 13001.0 0.9278011322021484 true
gene 1 8 114 -0.7144904136657715 false 13002.0 -0.7144904136657715 true
gene 1 9 114 -0.8582342267036438 false 13003.0 -0.8582342267036438 true
gene 1 10 114 -0.38437420129776 false 13004.0 -0.38437420129776 true
gene 1 11 114 -0.22272884845733643 false 13005.0 -0.22272884845733643 true
gene 1 12 114 -0.38325053453445435 false 13006.0 -0.38325053453445435 true
gene 1 13 114 -0.986018180847168 false 13007.0 -0.986018180847168 true
gene 1 1 115 -0.932104766368866 false 13110.0 -0.932104766368866 true
gene 1 2 115 -0.9786863327026367 false 13111.0 -0.9786863327026367 true
gene 1 3 115 0.4440932869911194 false 13112.0 0.4440932869911194 true
gene 1 4 115 -0.8624292612075806 false 13113.0 -0.8624292612075806 true
gene 1 5 115 -0.9285089373588562 false 13114.0 -0.9285089373588562 true
gene 1 6 115 0.8519533276557922 false 13115.0 0.8519533276557922 true
gene 1 7 115 -0.050603628158569336 false 13116.0 -0.050603628158569336 true
gene 1 8 115 -0.26559191942214966 false 13117.0 -0.26559191942214966 true
gene 1 9 115 -0.44527703523635864 false 13118.0 -0.44527703523635864 true
gene 1 10 115 -0.09701138734817505 false 13119.0 -0.09701138734817505 true
gene 1 11 115 -0.4524213671684265 false 13120.0 -0.4524213671684265 true
gene 1 12 115 -0.2700924277305603 false 13121.0 -0.2700924277305603 true
gene 1 13 115 -0.23250406980514526 false 13122.0 -0.23250406980514526 true
gene 1 114 115 0.6959086060523987 false 13223.0 0.6959086060523987 true
genomeend1
