/*Organims 2 Fitness: 1.0Time: 0*/
genomestart 2
trait 1node 1 1 SENSOR INPUT
node 2 1 SENSOR INPUT
node 3 1 SENSOR INPUT
node 4 1 SENSOR INPUT
node 5 1 SENSOR INPUT
node 6 1 SENSOR INPUT
node 7 1 SENSOR INPUT
node 8 1 SENSOR INPUT
node 9 1 SENSOR INPUT
node 10 1 SENSOR INPUT
node 11 1 SENSOR INPUT
node 12 1 SENSOR INPUT
node 13 1 SENSOR BIAS
node 114 1 NEURON OUTPUT
node 115 1 NEURON OUTPUT
gene 1 2 114 0.2691139578819275 false 12996.0 0.2691139578819275 true
gene 1 7 114 -0.5891915559768677 false 13001.0 -0.5891915559768677 true
gene 1 8 114 -0.33714258670806885 false 13002.0 -0.33714258670806885 true
gene 1 9 114 -0.3495759963989258 false 13003.0 -0.3495759963989258 true
gene 1 10 114 0.509604275226593 false 13004.0 0.509604275226593 true
gene 1 11 114 -0.4201863408088684 false 13005.0 -0.4201863408088684 true
gene 1 12 114 -0.002355515956878662 false 13006.0 -0.002355515956878662 true
gene 1 13 114 -0.4237695336341858 false 13007.0 -0.4237695336341858 true
gene 1 2 115 -0.7652615904808044 false 13111.0 -0.7652615904808044 true
gene 1 7 115 -0.274641752243042 false 13116.0 -0.274641752243042 true
gene 1 8 115 -0.06615173816680908 false 13117.0 -0.06615173816680908 true
gene 1 9 115 0.47965312004089355 false 13118.0 0.47965312004089355 true
gene 1 10 115 -0.9194322824478149 false 13119.0 -0.9194322824478149 true
gene 1 11 115 0.9213992357254028 false 13120.0 0.9213992357254028 true
gene 1 12 115 -0.920619010925293 false 13121.0 -0.920619010925293 true
gene 1 13 115 -0.3853512406349182 false 13122.0 -0.3853512406349182 true
genomeend2
