/*Organims 4 Fitness: 0.001Time: 0*/
genomestart 4
trait 1node 1 1 SENSOR INPUT
node 2 1 SENSOR INPUT
node 3 1 SENSOR INPUT
node 4 1 SENSOR INPUT
node 5 1 SENSOR INPUT
node 6 1 SENSOR INPUT
node 7 1 SENSOR INPUT
node 8 1 SENSOR INPUT
node 9 1 SENSOR INPUT
node 10 1 SENSOR INPUT
node 11 1 SENSOR INPUT
node 12 1 SENSOR INPUT
node 13 1 SENSOR BIAS
node 114 1 NEURON OUTPUT
node 115 1 NEURON OUTPUT
gene 1 2 114 -0.5793543457984924 false 12996.0 -0.5793543457984924 true
gene 1 3 114 -0.5034676790237427 false 12997.0 -0.5034676790237427 true
gene 1 5 114 -0.6383880376815796 false 12999.0 -0.6383880376815796 true
gene 1 6 114 -0.42644304037094116 false 13000.0 -0.42644304037094116 true
gene 1 13 114 0.12413150072097778 false 13007.0 0.12413150072097778 true
gene 1 2 115 0.8762186765670776 false 13111.0 0.8762186765670776 true
gene 1 3 115 -0.4120284914970398 false 13112.0 -0.4120284914970398 true
gene 1 5 115 -0.6044241189956665 false 13114.0 -0.6044241189956665 true
gene 1 6 115 -0.2356036901473999 false 13115.0 -0.2356036901473999 true
gene 1 13 115 -0.5944607853889465 false 13122.0 -0.5944607853889465 true
gene 1 114 115 -0.23455268144607544 false 13223.0 -0.23455268144607544 true
genomeend4
